0.318984252232 -0.469593619395 -0.432514029999 -1.16831262643 0.751026923799 -0.386743211832 -1.21993837043 0.301976416034 -0.666632067045 0.590764932627 1.37758916577 0.553195555756 0.346548235436 -1.21738338928 -0.279159510011 -0.00713592309982 0.438649458639 -0.0569200162469 0.018547832709 0.0189568651336 0.0738045196364 -0.317861228855 -0.93905671135 -0.200020197842 0.35679182872 0.216431501923 -0.767420312998 0.630985873922 -0.540072333142 -0.0156611596444 0.473993956101 0.886570987511 0.808708070714 0.496665709481 0.00183786095681 0.977200420176 -0.129615951086 0.559989191186 0.31226938259 -0.742944909461 0.0421888063486 -0.0505895430504 0.577550992183 1.5604780764 0.903537552132 0.926443763252 0.376286247032 0.6030124477 0.338054818364 0.164465686648 0.388489392887 0.0232459557453 -0.468103072366 1.07794204803 0.670840266763 -0.0887873665561 -0.890397573619 0.06234476781 -0.133169593277 0.478455177503 1.05962074727 0.0989902323418 -0.232251761571 0.862329548515 -0.182062365364 -0.201092643707 0.275779492402 0.487483395343 0.537164431045 0.375702772383 0.410291941521 0.0635126844404 -0.841359359044 -1.1345018395 -0.564426427089 0.263183807048 -0.249785625682 0.348780598782 0.636056745304 0.0158242672126 0.104193652777 0.0266522336341 -1.56952646487 1.40308178787 0.766283558593 0.189576348459 0.336932035789 0.458042979776 -1.19117418842 0.334718804391 -0.548589665232 -0.360148408527 0.588537178014 0.66196317027 -0.352147196824 0.776421326904 0.826914565862 0.752155688088 -0.283388574328 0.658014808911 0.250935786649 -0.498790086621 0.703710084259 1.68279811856 0.313533818541 -0.107409439733 0.27764780827 0.796911010669 -0.347539915046 0.59197698002 -0.858771983917 0.109577556988 -0.313484733592 0.515872702852 -0.288459543734 -0.27705449399 -0.0134131736512 -0.332572325992 0.59031745109 1.19197671106 0.466679689714 0.341495023994 -1.06640921843 0.525865483769 -0.0471380949918 0.293483575253 1.03737205826 0.642738186897 -0.18219245971 0.570571414687 0.330422634472 0.553403543688 -0.963718197813 0.242048664264 0.553255304982 -1.24346472839 0.197950176117 0.18551885001 0.933067326247 0.569278961257 0.209780340872 0.551859987847 0.15503687557 0.824116477698 -0.613610448347 0.318603674979 -0.904005903081 -0.460826614397 -0.192921750375 -0.232649005119 0.945503632805 -0.173179948087 -0.294412077326 -0.600905305585 0.0344683868573 0.78225118654 -0.794687587344 0.586988534123 0.212676518669 1.27015774215 0.511836417712 0.0187622342176 -0.62599884999 0.32427610582 0.300546144932 -1.56228605876 0.514685132415 0.103547711567 0.031123793378 0.537855360894 0.0713267763655 0.323018437616 -0.387278905043 1.49750843525 0.483929275568 -1.59004267434 -0.477335265738 0.140233554169 0.385710913053 0.539202257243 -1.44012176675 0.771407454774 -0.0764544489873 -0.836994342432 0.158200584059 0.220128545407 -0.105116943006 0.615831217092 -0.0145563812575 0.696863454837 -0.584033206166 -0.420749711108 0.457419699521 -0.208721235936 0.62638612166 0.602024131028 0.150703831645 0.843935094007 0.282329397059 -0.0470462642942 -1.74034810213 0.123600889646 0.21550321016 0.492417815364 -0.630197841405 0.505620962199 1.17638462202 0.45972254522 0.195008421701 0.488883566505 0.0599559827701 0.162152719981 0.113212417826 -1.32482935706 -0.29795300204 -0.64092361657 1.56641082478 0.150409267172 1.49100160549 -0.371454358332 0.557042005521 0.677280070293 0.0890527671992 0.220078123299 0.519543923271 0.0780503715683 -0.0827001548127 -1.0977039954 -0.107496477566 0.14273822599 0.761698182337 -0.228722692941 -0.850163981099 0.311174332508 0.655943158798 0.480851447113 0.642291856214 -0.510645710961 0.703315575374 1.06069064576 0.383983297473 0.285051504383 -0.216114826866 0.106265733008 0.0729904337762 -0.84007021952 0.117509610456 0.121491850508 0.481724542543 0.211481688366 0.820540721958 1.69152245194 0.604058691304 1.1010295878 -0.516092355875 -1.12473043144 -0.75383264607 -0.320650078768 0.410643472778 0.225132138769 -0.378964747366 0.859420916597 0.235491413218 -0.329697295215 -0.0425168123459 0.167119155535 -0.275520003081 1.27888652737 0.501804194451 0.584214783771 0.159660588527 -1.6701532166 0.464664919669 -0.113974868839 -0.547747028259 0.584345597868 0.44980428059 0.137748745537 0.894021060175 0.430359976714 -1.14704160637 0.682640709907 -1.23186404232 0.247384039062 -0.249607178184 0.318794817956 -0.0394112829696 0.606890445774 -0.078425936951 0.168049097468 0.728740024643 -0.429837661983 -0.334253466108 -1.2038558828 -0.0401856941994 -0.0803162054452 -0.215708994485 0.96123212872 0.103540842278 0.678155370541 -0.143523154652 0.565643574545 0.0200085628752 0.0373414179097 -0.402345600552 -0.174412694672 -1.98420666335 -0.0109573097958 0.211566178013 1.08993096005 0.0264792378791 0.123161785319 -0.592145062389 0.451105233762 -0.167391792897 -0.385620084789 1.03307060896 0.3448549685 0.420730380496 0.213877226621 0.0480005482988 0.113868530324 -0.00936630248628 0.455103210705 -0.0164748096243 1.58979859687 -0.17003694953 0.296769522839 -0.0166048072234 -0.434938056943 -0.0174109019827 -0.151457068781 -0.201348802804 0.121706459633 -0.12585129961 0.0340202607743 -0.170280457408 -0.401669158147 0.00845137707356 0.742497762476 0.628321104002 1.09801814039 0.294894116536 0.234526251227 -0.637869862702 -0.680293986349 0.474802012925 1.07368297882 0.200569524472 -0.578186186493 1.07774087241 -1.29489902539 0.490103916072 0.712139497381 -0.289143209247 0.374194965799 -0.521443087181 -0.534883012584 0.606792571364 -0.156660360633 0.488104018802 0.0258143162393 -0.366870877528 -0.639163782435 -0.00170236033546 -0.666496852122 0.546907375701 -0.322294961454 1.1692197729 0.546315814177 -0.745329306368 -0.584146481383 -0.00743614916073 0.779053837593 -0.499532575203 0.227850808171 0.8430187455 0.449012422215 0.301078245676 0.059121223716 0.404419100043 0.634591010053 0.829369584549 -0.286724554853 0.200007906293 0.0911407083442 0.803486027255 1.3708863165 -0.292857644802 -0.592289494847 -0.350591050885 1.0097272793 -0.778458778721 -2.30096524155 -0.96128706968 0.372311497744 0.708842966314 0.616690859061 -0.0159498715303 1.7020812019 -0.188978396755 0.88876570151 0.949749789453 0.817200051076 -0.54788806453 1.22575431689 1.85253281925 0.01164717557 0.67776460179 -0.302409862075 0.757594438987 0.924011736072 0.475383316025 1.41858032787 0.196438512312 0.29518886067 -0.208928911349 0.121848602174 1.01733380114 0.210826938373 1.39190118336 0.0208360453764 0.799750090075 0.0687044266879 0.334471642151 0.433401461605 1.91494038686 0.783452610875 0.461991469647 0.239184426117 -0.526048503675 0.794838565286 -0.431528516839 -0.0854399334238 0.150854866878 -0.733495298936 0.820079380881 -0.0486029939804 0.16654166587 1.79369818734 1.49467937387 3.24825414589 0.142160580793 0.814090541013 -0.610965409934 -0.756717341875 0.912066032713 0.252579129386 0.0685246586229 0.0888023263104 -0.14606232386 0.277688910911 0.444284111506 -0.635064371704 -0.178877986692 1.14578988446 0.768383198093 -0.0634108911051 0.290315146411 0.2571895398 -0.0385353826612 2.59615665037 0.160239971935 0.156440290535 0.665111192841 0.202778791758 0.0247654689294 -0.219309969858 -0.193035866427 -0.268224689449 -0.165878767553 -0.197177871428 0.915417567802 1.02280142975 0.878941556422 0.0111949741999 0.317048904732 0.320105665071 0.506262914444 0.109588377945 -0.19701054169 0.965949287727 1.85586866391 -0.0740303331395 -0.467954493407 0.170563460471 1.44354467598 -0.11366895508 1.04653454726 0.063518696497 0.618702078708 0.46349502792 0.247790889704 0.0806918607695 0.332698150362 -0.132143830774 0.109202744145 -0.086369217403 0.195590045058 -0.211636671024 0.214866679591 1.18956972249 -0.617534685372 -0.595268319564 -0.118015187486 0.326933181149 -0.00823226149556 -0.170697065048 0.0738083229159 0.686607562553 0.857991567843 0.948561051627 0.243626843745 -0.044632641004 0.587138732123 0.432086888958 0.573848152071 0.914923644669 -0.397133163827 -0.555339205097 0.337522791389 -0.130824245629 1.02303675518 1.119203336 0.111749185873 -0.174436409395 -0.688294198903 -0.565319392894 0.622303938846 -0.441422815343 -0.208441628704 -0.338621152217 0.862506166288 -0.263443616756 0.0947670058465 1.4884763305 -0.244559874123 0.0419689315371 -0.233487107015 -0.532390631081 -0.153476809724 -0.22917978548 -0.120679639076 -0.271952331362 0.479533823044 0.0220720002115 0.737485793379 0.10089334084 1.07568163438 0.0367549701816 -0.487594874179 0.307553810038 0.736707778294 1.15806663988 0.143636645224 -0.462602825402 1.08056107339 0.458797915175 -0.00508661106186 -0.481188605069 -0.260769788903 -0.0808640844639 1.96280713032 -0.261241835948 0.823257945227 1.44056859414 -0.0224108319891 -0.0572567540616 0.930923393702 0.194167907299 2.19657694448 -0.109852205303 0.346660908408 -0.433961862829 -0.216305452417 1.44731992991 0.307141124602 0.0604757897809 0.11288189458 -0.25930253452 1.47251785214 -0.236135239088 0.886936388275 1.98710347743 0.00166378413436 -0.256974607777 0.174114577904 -0.466026340359 -0.040513484104 -0.575405071372 0.847385755001 0.891300357618 -0.289001140299 0.246283366747 -0.236634841466 -0.285594386404 0.514535265889 -0.352911093838 -0.249080982201 0.27021686782 1.60685456011 0.0536148876451 0.220147827135 -0.263434319307 0.428247937696 -0.377726367911 0.386557073959 -0.141415625864 -0.126139670059 -0.357898692594 0.227230195738 0.362002756006 0.247006408436 1.45149196943 0.544082430895 0.661051148498 -0.291157968925 0.0352415476816 -0.577062329805 0.707190085659 -0.440944100779 -0.549639324039 0.128679690849 0.134586363659 -0.406643265588 0.0351097734545 0.15240326042 1.03539183638 0.212105943864 -0.0716740882089 -0.487648432216 2.33243590586 1.11816864841 -0.109400513718 -0.415154707019 0.356827547129 -0.0359318420515 0.556059425448 -0.394625635686 -0.376145267685 0.00160304382037 -0.161332752023 0.617161510613 -0.0588812208292 0.0175868806765 0.764116445743 0.607834600562 -0.100527056781 -0.278612470991 0.760913767452 -0.563642474297 -0.103255486935 1.71699893189 -0.113534844195 0.333369793797 1.04622030681 1.6895751877 0.524753623158 -0.278484775696 0.140275209947 1.25787694054 0.152326832708 -0.209380164656 0.262945453198 1.59067611986 -0.218883843598 0.527431434601 -0.82509048514 -0.0947680153207 0.377955782722 -0.221369022486 2.00894782455 -0.16856895259 0.181946099436 0.313503276625 0.225525365646 0.487775749152 -0.170663145251 -0.0801703111429 -0.212796031814 1.26537630488 -0.623248952374 1.05246855551 1.77404309582 0.381135450136 1.3281398004 0.241210742847 -0.250979082095 0.553153004865 0.0600735845435 -0.461847194049 0.488424154643 0.525678970985 1.14038465117 0.0541578522442 0.23678022075 0.268957166732 -0.580987420254 -0.109826624376 -0.0807959318275 0.280284555884 -0.0486394927796 0.0249914404309 -0.327168604295 2.60215162002 0.593659215352 1.76365345025 0.331687598088 1.18516514275 -0.547297877897 -0.00716987645919 0.299668489797 0.532808514069 -0.379182022702 0.141002324624 0.366722954577 -0.34200155108 -0.226846708792 0.0944688412069 -0.127774270977 0.47784458418 -0.0683185510569 0.872578908286 0.105657314645 0.109955261814 0.469858978318 0.237582334552 -0.139165180077 0.558917492558 0.506780697052 0.681908224599 0.156535828298 0.664470538687 0.141360265888 0.350491614732 0.279834899877 0.377075098192 0.786075191061 0.012297151004 -0.282560328452 -0.386047707536 -0.54687757136 -0.202153309836 0.348987947669 0.443845643277 1.09016479914 -0.216825577345 1.47013334751 -0.103977998775 0.25481904164 -0.680945799268 0.947721716417 0.361015513233 -0.0162747357578 0.461389348957 0.684134555683 0.524056254359 0.544863069004 -0.14954159615 1.29052175258 -0.048330252303 0.21156609991 0.909139604882 0.905092786994 0.621148797743 0.583117464869 -0.435612414424 0.598242265612 -0.677463149876 -0.311610002256 1.50832782914 0.496391215551 0.369776764749 0.188782569309 1.17842121661 -0.165936589803 -0.317228564906 -0.126607654419 -0.151536510023 0.137448932544 -0.151618058914 -0.403326167843 -0.724493747378 0.392399149663 -0.169567392936 0.0426503648251 -0.454864365796 -0.482884805433 1.62964959107 0.554371663585 0.142178142639 -0.62012313452 0.198013217098 2.00947063864 0.692096328284 -0.17411863911 -0.497865743689 -0.482707179215 0.0739185129115 -0.224964725852 -0.163538445193 0.0527995802739 0.00414976874022 0.839099504491 -0.4243484187 0.682357122083 -0.856082378157 -0.402129243858 0.365132946778 -0.568995564204 -1.35726341627 -0.92482307832 0.194039545293 0.733073567749 0.520386119633 -0.239825373648 -0.361404578582 0.0970332651208 -0.718410558105 -0.0770825980429 0.328199861407 0.441564560412 1.51180270594 0.510761978715 -0.211502409265 -1.07638209292 -0.842007395332 -0.737504235471 0.710198736415 -0.0431045025277 -0.0484308998016 -1.47310473852 -0.449001191232 -0.407023227346 -0.0706593823542 -0.724501487971 -1.22470781576 -0.875960911986 -0.449337176733 -0.749421609499 -1.20196766228 1.22882716953 -0.931620594873 -1.21958158755 -0.669492017332 -0.25640349939 -0.392296921213 -1.49810508041 -0.0847504536876 -0.110475794534 -0.0518340881909 -0.163086424348 0.731296100017 -0.560852631686 -0.756880650414 -0.475265370941 -0.15828302082 -0.0315934378005 -0.0788487960383 -0.51004007484 -1.70538990724 0.85633135746 0.447041014847 -1.14473759226 -0.312533517157 -0.389070073755 -0.371984351853 -0.459118402363 -0.372989774382 -0.0309219152617 -0.504488024563 0.182520761395 0.330334212189 -0.207978214423 -0.0994286860891 -0.235066040365 0.140916735831 -0.0968609765073 -0.613312037723 -0.252786387225 0.376323744299 -0.769698661948 0.566303500649 -1.95357817492 -0.495773695726 -0.439707152284 -1.25917535873 -0.249829834949 0.220616556714 -0.542746673356 0.406169248164 0.0842240447648 -1.01699084924 -0.764052458067 -0.331582961258 -0.703638359399 -1.11204992323 -1.1962325462 -0.0920624980834 -0.269702006401 -0.58821243783 -0.822365964528 -0.334004049756 -1.31909662939 0.0130671203236 -0.783808237306 -0.300570324865 -0.668977842985 0.317389762306 -0.214481485876 -0.418804251061 -1.27082035911 0.253351192176 -0.835318120539 0.121532616119 -0.193219421931 0.0904874661999 -0.106862506398 -0.546680385661 -0.593817992163 -0.816204930697 -0.164640473917 0.318943779494 -0.415665528282 -0.136036032516 -0.029656400883 -0.748767400576 0.06555232972 -0.145859261639 -0.367334087721 -0.542608108387 -0.442570888084 0.900990414956 0.376988970942 -1.21362892436 -0.00188389588481 0.400215680743 -0.490595575649 -1.12885816251 0.0554917804645 0.188489930838 -0.313516956742 -0.214038936753 -0.674524336471 0.903440122611 -0.352609591635 0.129324761515 0.660010443428 -0.0866063181135 0.352479697721 -0.433570118571 -0.375674545706 -0.0178962029958 -0.504813447838 -0.109337837263 -0.443511549827 -0.201459463175 -1.21857959765 -0.24751623397 -0.776144568201 -0.697304409051 -0.0930007635791 -1.03534371404 -0.273878568642 -0.941017645307 0.879764959018 -0.460619259899 -0.00282728828016 -1.23374505483 -1.13021908736 -0.950341922982 0.0174435889506 -0.432026854355 -1.59277704659 -0.582383032009 -0.185063169823 0.325384214702 0.142666612277 -0.830332468911 -0.716484802201 -0.185663655432 -0.896210008645 -0.89062926966 -0.654530041928 -0.148638121793 0.181730900749 0.0752678390174 -0.053807402788 0.480930196463 -0.272867135862 1.07063731553 0.185608149446 -0.110987005678 -0.20440829125 -0.641119069227 -0.475580400017 -0.200944146413 -0.674078807497 -0.304667733899 -0.559790430138 -0.0240593349556 -0.632633899744 -0.864184501057 -0.679228740225 1.04018342266 -0.425950009365 -1.10484799204 -0.440435729079 -0.172159496557 -0.362996553623 -0.128164918079 -0.626972109885 -0.651472036817 1.23329247469 -0.706458206472 0.340069929392 -2.17683812968 0.0348626112234 -1.7023297768 0.138499044155 0.270369982529 -0.0675329194243 0.116623337634 -0.104669525833 -0.446343166929 -0.119021980828 -0.203794480529 0.594503783039 0.0284370128884 0.0411585811032 -0.100573087858 -1.10593913853 -0.693813466174 -0.617869800786 -0.340240544204 -1.42753090055 -0.574450335699 -0.329037176865 -0.514024510025 -0.825118481254 -0.268003119837 -0.571136535094 -0.946464189427 0.115859971907 -0.591666238104 0.456473539006 -0.188365267936 -0.233204820531 -0.575185941584 0.732755533674 -0.797948056069 -2.59203369028 -1.17499557421 -1.13112312776 0.123328845306 0.440413025352 -0.968704766958 -0.352142321053 -0.313697345729 -0.280174125153 -0.244163818873 -0.913012029518 -0.427006537396 0.318310436683 -1.14250464465 0.31686422363 -0.277414654678 -1.0431453526 -0.774534045157 -0.970972136263 -0.226439469472 0.0348009512757 -0.739863072849 -0.409621841245 0.812152921346 -0.906555832179 -1.09323054621 -0.152538740625 -1.01592963746 -0.443891650283 0.0342374525075 0.22962533073 0.290142368416 -1.28408231173 0.29132108392 -1.16546386795 -0.472982283441 -0.436863770045 -0.697049290284 -0.162867296879 -0.683725409978 -0.0585757579979 0.0737861601495 0.916697815178 0.0546603154742 -0.165770991357 0.250011133648 -0.714553382327 -0.0295866841168 -0.817634577974 -0.314543927125 -0.227429373617 -0.195426476712 0.0185556176911 -0.345528351892 0.528925334145 0.00978640745616 0.127720899595 -1.43739514663 -0.694442107616 0.22884216141 -0.416441564435 0.138349698145 0.190533353912 0.199556703302 0.40093583322 -0.76718354248 -0.224354849398 -0.910738322391 -0.0267978302859 -0.539783166739 -0.358005830516 -0.445844301706 -0.639857937328 -0.0126893895071 -2.21224285647 0.00078174118531 -0.24028550222 0.0855784655093 0.0231336974824 -0.987820275507 0.0797057793211 -0.391492786736 -0.353650859551 0.0990315046884 -0.0519530187914 -0.359071276477 0.0500117243939 -0.0592617663061 -0.579297642604 -0.292671715846 -0.951604933519 -0.383754253567 -0.354810632559 0.427575131063 0.45528437342 -0.142835043423 -0.836748107001 -0.169821533381 0.909965792678 -0.888852569999 1.06938450726 -1.0856714043 -1.07291301594 -0.166507838239 -1.39901163751 0.187899058935 0.183047848744 -0.826724444419 -1.28823125852 -0.792751245286 -0.456023793221 -0.181554289041 -0.177011870175 -0.887266994845 -0.131999842593 -0.355186616184 0.59539331005 -0.965689482738 -0.412667567384 0.410066069555 0.274601050716 -0.101340454333 -0.22319073409 -0.117568776663 -0.406442854368 -0.970240450243 -0.13450433046 -0.177024719115 -0.396347057699 -0.217664858334 -0.251402148282 -0.301651989581 -0.0412668399449 0.0554592067471 0.0413284425331 -0.771634499818 -1.44364396038 -0.926135019972 0.0600241610051 0.584714141386 -0.597284727786 0.683326799235 1.04849108498 0.944180512374 -0.183054388585 -0.496418998345 -0.458841710522 -0.163624071757 -1.99756455084
